Language model created by QuickLM on Fri Nov 18 11:14:08 EST 2016
Copyright (c) 1996-2010 Carnegie Mellon University and Alexander I. Rudnicky

The model is in standard ARPA format, designed by Doug Paul while he was at MITRE.

The code that was used to produce this language model is available in Open Source.
Please visit http://www.speech.cs.cmu.edu/tools/ for more information

The (fixed) discount mass is 0.5. The backoffs are computed using the ratio method.
This model based on a corpus of 15 sentences and 24 words

\data\
ngram 1=24
ngram 2=38
ngram 3=25

\1-grams:
-2.0414 0 -0.2374
-2.0414 1 -0.2374
-2.0414 2 -0.2374
-2.0414 3 -0.2374
-2.0414 4 -0.2374
-2.0414 5 -0.2374
-2.0414 6 -0.2374
-2.0414 7 -0.2374
-2.0414 8 -0.2374
-2.0414 9 -0.2374
-0.8653 </s> -0.3010
-0.8653 <s> -0.2374
-1.7404 ALARM -0.2281
-2.0414 GIVE -0.2971
-2.0414 IS -0.2971
-2.0414 LED -0.2931
-2.0414 ME -0.2971
-1.7404 ON -0.2374
-1.7404 PUT -0.2890
-2.0414 TEMPERATURE -0.2374
-2.0414 THE -0.2971
-2.0414 TIME -0.2374
-2.0414 TRY -0.2931
-2.0414 WHAT -0.2971

\2-grams:
-0.3010 0 </s> -0.3010
-0.3010 1 </s> -0.3010
-0.3010 2 </s> -0.3010
-0.3010 3 </s> -0.3010
-0.3010 4 </s> -0.3010
-0.3010 5 </s> -0.3010
-0.3010 6 </s> -0.3010
-0.3010 7 </s> -0.3010
-0.3010 8 </s> -0.3010
-0.3010 9 </s> -0.3010
-1.4771 <s> 0 0.0000
-1.4771 <s> 1 0.0000
-1.4771 <s> 2 0.0000
-1.4771 <s> 3 0.0000
-1.4771 <s> 4 0.0000
-1.4771 <s> 5 0.0000
-1.4771 <s> 6 0.0000
-1.4771 <s> 7 0.0000
-1.4771 <s> 8 0.0000
-1.4771 <s> 9 0.0000
-1.4771 <s> GIVE 0.0000
-1.1761 <s> PUT 0.0000
-1.4771 <s> TRY 0.0000
-1.4771 <s> WHAT 0.0000
-0.6021 ALARM </s> -0.3010
-0.6021 ALARM ON 0.0000
-0.3010 GIVE ME 0.0000
-0.3010 IS THE 0.0000
-0.3010 LED ON 0.0000
-0.3010 ME TEMPERATURE 0.0000
-0.3010 ON </s> -0.3010
-0.6021 PUT ALARM -0.1761
-0.6021 PUT LED 0.0000
-0.3010 TEMPERATURE </s> -0.3010
-0.3010 THE TIME 0.0000
-0.3010 TIME </s> -0.3010
-0.3010 TRY ALARM -0.1761
-0.3010 WHAT IS 0.0000

\3-grams:
-0.3010 <s> 0 </s>
-0.3010 <s> 1 </s>
-0.3010 <s> 2 </s>
-0.3010 <s> 3 </s>
-0.3010 <s> 4 </s>
-0.3010 <s> 5 </s>
-0.3010 <s> 6 </s>
-0.3010 <s> 7 </s>
-0.3010 <s> 8 </s>
-0.3010 <s> 9 </s>
-0.3010 <s> GIVE ME
-0.6021 <s> PUT ALARM
-0.6021 <s> PUT LED
-0.3010 <s> TRY ALARM
-0.3010 <s> WHAT IS
-0.3010 ALARM ON </s>
-0.3010 GIVE ME TEMPERATURE
-0.3010 IS THE TIME
-0.3010 LED ON </s>
-0.3010 ME TEMPERATURE </s>
-0.3010 PUT ALARM ON
-0.3010 PUT LED ON
-0.3010 THE TIME </s>
-0.3010 TRY ALARM </s>
-0.3010 WHAT IS THE

\end\
