Language model created by QuickLM on Sat Nov 12 06:16:18 EST 2016
Copyright (c) 1996-2010 Carnegie Mellon University and Alexander I. Rudnicky

The model is in standard ARPA format, designed by Doug Paul while he was at MITRE.

The code that was used to produce this language model is available in Open Source.
Please visit http://www.speech.cs.cmu.edu/tools/ for more information

The (fixed) discount mass is 0.5. The backoffs are computed using the ratio method.
This model based on a corpus of 19 sentences and 32 words

\data\
ngram 1=32
ngram 2=51
ngram 3=33

\1-grams:
-2.1644 1 -0.2405
-2.1644 2 -0.2405
-2.1644 3 -0.2405
-2.1644 4 -0.2405
-2.1644 5 -0.2405
-2.1644 6 -0.2405
-2.1644 7 -0.2405
-2.1644 8 -0.2405
-2.1644 9 -0.2405
-0.8856 </s> -0.3010
-0.8856 <s> -0.2301
-2.1644 BLUE -0.2980
-2.1644 GARAGE -0.2405
-2.1644 GIVE -0.2980
-2.1644 HOUSE -0.2405
-2.1644 IN -0.2980
-1.8633 IS -0.2920
-1.8633 JUL -0.2370
-2.1644 MUSIC -0.2405
-2.1644 OKAY -0.2980
-2.1644 OPEN -0.2980
-2.1644 PASSWORD -0.2405
-2.1644 PI -0.2405
-2.1644 PLAY -0.2950
-2.1644 RAMONA -0.2405
-2.1644 SHUTDOWN -0.2405
-2.1644 START -0.2980
-1.6872 THE -0.2920
-2.1644 TIME -0.2405
-2.1644 TRANSLATOR -0.2405
-2.1644 WEATHER -0.2980
-1.8633 WHAT -0.2950

\2-grams:
-0.3010 1 </s> -0.3010
-0.3010 2 </s> -0.3010
-0.3010 3 </s> -0.3010
-0.3010 4 </s> -0.3010
-0.3010 5 </s> -0.3010
-0.3010 6 </s> -0.3010
-0.3010 7 </s> -0.3010
-0.3010 8 </s> -0.3010
-0.3010 9 </s> -0.3010
-1.5798 <s> 1 0.0000
-1.5798 <s> 2 0.0000
-1.5798 <s> 3 0.0000
-1.5798 <s> 4 0.0000
-1.5798 <s> 5 0.0000
-1.5798 <s> 6 0.0000
-1.5798 <s> 7 0.0000
-1.5798 <s> 8 0.0000
-1.5798 <s> 9 0.0000
-1.5798 <s> GIVE 0.0000
-1.5798 <s> JUL -0.1761
-1.5798 <s> OKAY 0.0000
-1.5798 <s> OPEN 0.0000
-1.5798 <s> PLAY 0.0000
-1.5798 <s> SHUTDOWN 0.0000
-1.5798 <s> START 0.0000
-1.5798 <s> THE -0.2218
-1.2788 <s> WHAT 0.0000
-0.3010 BLUE HOUSE 0.0000
-0.3010 GARAGE </s> -0.3010
-0.3010 GIVE PASSWORD 0.0000
-0.3010 HOUSE </s> -0.3010
-0.3010 IN RAMONA 0.0000
-0.3010 IS THE -0.1249
-0.6021 JUL </s> -0.3010
-0.6021 JUL MUSIC 0.0000
-0.3010 MUSIC </s> -0.3010
-0.3010 OKAY PI 0.0000
-0.3010 OPEN GARAGE 0.0000
-0.3010 PASSWORD </s> -0.3010
-0.3010 PI </s> -0.3010
-0.3010 PLAY JUL -0.1761
-0.3010 RAMONA </s> -0.3010
-0.3010 SHUTDOWN </s> -0.3010
-0.3010 START TRANSLATOR 0.0000
-0.7782 THE BLUE 0.0000
-0.7782 THE TIME 0.0000
-0.7782 THE WEATHER 0.0000
-0.3010 TIME </s> -0.3010
-0.3010 TRANSLATOR </s> -0.3010
-0.3010 WEATHER IN 0.0000
-0.3010 WHAT IS 0.0000

\3-grams:
-0.3010 <s> 1 </s>
-0.3010 <s> 2 </s>
-0.3010 <s> 3 </s>
-0.3010 <s> 4 </s>
-0.3010 <s> 5 </s>
-0.3010 <s> 6 </s>
-0.3010 <s> 7 </s>
-0.3010 <s> 8 </s>
-0.3010 <s> 9 </s>
-0.3010 <s> GIVE PASSWORD
-0.3010 <s> JUL </s>
-0.3010 <s> OKAY PI
-0.3010 <s> OPEN GARAGE
-0.3010 <s> PLAY JUL
-0.3010 <s> SHUTDOWN </s>
-0.3010 <s> START TRANSLATOR
-0.3010 <s> THE BLUE
-0.3010 <s> WHAT IS
-0.3010 BLUE HOUSE </s>
-0.3010 GIVE PASSWORD </s>
-0.3010 IN RAMONA </s>
-0.6021 IS THE TIME
-0.6021 IS THE WEATHER
-0.3010 JUL MUSIC </s>
-0.3010 OKAY PI </s>
-0.3010 OPEN GARAGE </s>
-0.3010 PLAY JUL MUSIC
-0.3010 START TRANSLATOR </s>
-0.3010 THE BLUE HOUSE
-0.3010 THE TIME </s>
-0.3010 THE WEATHER IN
-0.3010 WEATHER IN RAMONA
-0.3010 WHAT IS THE

\end\
